<?xml version="1.0"?>
<opencv_storage>
<stage8>
  <maxWeakCount>6</maxWeakCount>
  <stageThreshold>-8.5967624187469482e-01</stageThreshold>
  <weakClassifiers>
    <_>
      <internalNodes>
        0 -1 38508 -2.1004499285481870e-04</internalNodes>
      <leafValues>
        -8.6486488580703735e-01 5.1713395118713379e-01</leafValues></_>
    <_>
      <internalNodes>
        0 -1 262756 3.1682944390922785e-03</internalNodes>
      <leafValues>
        -6.0116142034530640e-01 4.4300749897956848e-01</leafValues></_>
    <_>
      <internalNodes>
        0 -1 5 9.2962131020613015e-05</internalNodes>
      <leafValues>
        3.4261083602905273e-01 -8.7521535158157349e-01</leafValues></_>
    <_>
      <internalNodes>
        0 -1 774021 -1.2142700143158436e-02</internalNodes>
      <leafValues>
        8.1876444816589355e-01 -4.0384948253631592e-01</leafValues></_>
    <_>
      <internalNodes>
        0 -1 1488494 -2.7169357053935528e-03</internalNodes>
      <leafValues>
        4.3333902955055237e-01 -7.9480922222137451e-01</leafValues></_>
    <_>
      <internalNodes>
        0 -1 1008894 -2.0242037135176361e-04</internalNodes>
      <leafValues>
        -8.0991929769515991e-01 3.5509625077247620e-01</leafValues></_></weakClassifiers></stage8>
</opencv_storage>
