<?xml version="1.0"?>
<opencv_storage>
<stage12>
  <maxWeakCount>6</maxWeakCount>
  <stageThreshold>-6.7974901199340820e-01</stageThreshold>
  <weakClassifiers>
    <_>
      <internalNodes>
        0 -1 1611212 4.4496031478047371e-03</internalNodes>
      <leafValues>
        4.5427286624908447e-01 -8.0487805604934692e-01</leafValues></_>
    <_>
      <internalNodes>
        0 -1 1220742 -5.0410535186529160e-03</internalNodes>
      <leafValues>
        6.9997006654739380e-01 -3.2812738418579102e-01</leafValues></_>
    <_>
      <internalNodes>
        0 -1 1455310 3.2883710227906704e-03</internalNodes>
      <leafValues>
        -2.9206782579421997e-01 7.1538734436035156e-01</leafValues></_>
    <_>
      <internalNodes>
        0 -1 729375 2.6449568103998899e-03</internalNodes>
      <leafValues>
        -3.1877383589744568e-01 7.9380351305007935e-01</leafValues></_>
    <_>
      <internalNodes>
        0 -1 140376 3.0658673495054245e-04</internalNodes>
      <leafValues>
        3.7975618243217468e-01 -8.4439969062805176e-01</leafValues></_>
    <_>
      <internalNodes>
        0 -1 589323 1.2620966881513596e-02</internalNodes>
      <leafValues>
        -3.7875059247016907e-01 8.3184814453125000e-01</leafValues></_></weakClassifiers></stage12>
</opencv_storage>
