<?xml version="1.0"?>
<opencv_storage>
<stage10>
  <maxWeakCount>8</maxWeakCount>
  <stageThreshold>-1.3302336931228638e+00</stageThreshold>
  <weakClassifiers>
    <_>
      <internalNodes>
        0 -1 1625889 -1.1349881533533335e-03</internalNodes>
      <leafValues>
        -6.7213112115859985e-01 5.3871500492095947e-01</leafValues></_>
    <_>
      <internalNodes>
        0 -1 37553 4.5627571642398834e-02</internalNodes>
      <leafValues>
        -3.7757468223571777e-01 6.8386656045913696e-01</leafValues></_>
    <_>
      <internalNodes>
        0 -1 208047 1.8254874157719314e-04</internalNodes>
      <leafValues>
        -8.6662453413009644e-01 3.2100197672843933e-01</leafValues></_>
    <_>
      <internalNodes>
        0 -1 1168695 4.5144138857722282e-03</internalNodes>
      <leafValues>
        -3.9554619789123535e-01 6.8530040979385376e-01</leafValues></_>
    <_>
      <internalNodes>
        0 -1 507367 -1.5732590109109879e-03</internalNodes>
      <leafValues>
        -7.6440328359603882e-01 3.3214515447616577e-01</leafValues></_>
    <_>
      <internalNodes>
        0 -1 888710 2.3166262544691563e-03</internalNodes>
      <leafValues>
        -4.3568333983421326e-01 5.8812499046325684e-01</leafValues></_>
    <_>
      <internalNodes>
        0 -1 62733 1.2119646999053657e-04</internalNodes>
      <leafValues>
        3.2474434375762939e-01 -8.4346550703048706e-01</leafValues></_>
    <_>
      <internalNodes>
        0 -1 1369102 1.3080833014100790e-03</internalNodes>
      <leafValues>
        -4.2718982696533203e-01 6.4444077014923096e-01</leafValues></_></weakClassifiers></stage10>
</opencv_storage>
